<?xml version="1.0"?>
<opencv_storage>
<cascade>
  <stageType>BOOST</stageType>
  <featureType>HAAR</featureType>
  <height>24</height>
  <width>24</width>
  <stageParams>
    <boostType>GAB</boostType>
    <minHitRate>9.9500000476837158e-01</minHitRate>
    <maxFalseAlarm>5.0000000000000000e-01</maxFalseAlarm>
    <weightTrimRate>9.4999999999999996e-01</weightTrimRate>
    <maxDepth>1</maxDepth>
    <maxWeakCount>100</maxWeakCount></stageParams>
  <featureParams>
    <maxCatCount>0</maxCatCount>
    <featSize>1</featSize>
    <mode>BASIC</mode></featureParams>
  <stageNum>20</stageNum>
  <stages>
    <!-- stage 0 -->
    <_>
      <maxWeakCount>3</maxWeakCount>
      <stageThreshold>1.1454584598541260e+00</stageThreshold>
      <weakClassifiers>
        <_>
          <internalNodes>
            0 -1 62 -1.3918265176471323e-04</internalNodes>
          <leafValues>
            -5.7377046346664429e-01 9.8155701160430908e-01</leafValues></_>
        <_>
          <internalNodes>
            0 -1 25 -1.6680711996741593e-04</internalNodes>
          <leafValues>
            -6.8522697687149048e-01 9.3944799900054932e-01</leafValues></_>
        <_>
          <internalNodes>
            0 -1 43 -1.6058808250818402e-04</internalNodes>
          <leafValues>
            -7.6516824960708618e-01 8.4912836551666260e-01</leafValues></_></weakClassifiers></_>
    <!-- stage 1 -->
    <_>
      <maxWeakCount>1</maxWeakCount>
      <stageThreshold>9.8333626985549927e-01</stageThreshold>
      <weakClassifiers>
        <_>
          <internalNodes>
            0 -1 0 -1.3173738261684775e-04</internalNodes>
          <leafValues>
            -7.9661017656326294e-01 9.8333626985549927e-01</leafValues></_></weakClassifiers></_>
    <!-- stage 2 -->
    <_>
      <maxWeakCount>3</maxWeakCount>
      <stageThreshold>1.3079911470413208e+00</stageThreshold>
      <weakClassifiers>
        <_>
          <internalNodes>
            0 -1 23 -3.7891211104579270e-04</internalNodes>
          <leafValues>
            -2.4324324727058411e-01 9.8080343008041382e-01</leafValues></_>
        <_>
          <internalNodes>
            0 -1 0 1.3623267295770347e-04</internalNodes>
          <leafValues>
            9.5520234107971191e-01 -3.4479469060897827e-01</leafValues></_>
        <_>
          <internalNodes>
            0 -1 59 -9.3684808234684169e-05</internalNodes>
          <leafValues>
            -6.2801468372344971e-01 8.2951688766479492e-01</leafValues></_></weakClassifiers></_>
    <!-- stage 3 -->
    <_>
      <maxWeakCount>4</maxWeakCount>
      <stageThreshold>6.8530100584030151e-01</stageThreshold>
      <weakClassifiers>
        <_>
          <internalNodes>
            0 -1 59 1.5092817193362862e-04</internalNodes>
          <leafValues>
            9.8154062032699585e-01 -4.5454546809196472e-01</leafValues></_>
        <_>
          <internalNodes>
            0 -1 9 -2.3533529019914567e-04</internalNodes>
          <leafValues>
            -6.5522783994674683e-01 9.2728883028030396e-01</leafValues></_>
        <_>
          <internalNodes>
            0 -1 17 -3.4811854362487793e-02</internalNodes>
          <leafValues>
            -7.8515362739562988e-01 7.7757257223129272e-01</leafValues></_>
        <_>
          <internalNodes>
            0 -1 34 9.9322356283664703e-02</internalNodes>
          <leafValues>
            -4.3837490677833557e-01 9.2589390277862549e-01</leafValues></_></weakClassifiers></_>
    <!-- stage 4 -->
    <_>
      <maxWeakCount>3</maxWeakCount>
      <stageThreshold>1.1842715740203857e+00</stageThreshold>
      <weakClassifiers>
        <_>
          <internalNodes>
            0 -1 59 1.2834082008339465e-04</internalNodes>
          <leafValues>
            9.8013478517532349e-01 -4.1935482621192932e-01</leafValues></_>
        <_>
          <internalNodes>
            0 -1 54 2.0130505436100066e-04</internalNodes>
          <leafValues>
            9.2827558517456055e-01 -3.5385131835937500e-01</leafValues></_>
        <_>
          <internalNodes>
            0 -1 6 -1.0923882946372032e-03</internalNodes>
          <leafValues>
            -7.2413873672485352e-01 7.8975135087966919e-01</leafValues></_></weakClassifiers></_>
    <!-- stage 5 -->
    <_>
      <maxWeakCount>5</maxWeakCount>
      <stageThreshold>1.4158780574798584e+00</stageThreshold>
      <weakClassifiers>
        <_>
          <internalNodes>
            0 -1 15 1.7491814494132996e-01</internalNodes>
          <leafValues>
            9.7529554367065430e-01 -8.1818181276321411e-01</leafValues></_>
        <_>
          <internalNodes>
            0 -1 19 1.1220070882700384e-04</internalNodes>
          <leafValues>
            9.2738199234008789e-01 -4.9178478121757507e-01</leafValues></_>
        <_>
          <internalNodes>
            0 -1 31 1.4961206761654466e-04</internalNodes>
          <leafValues>
            8.4312337636947632e-01 -4.4196110963821411e-01</leafValues></_>
        <_>
          <internalNodes>
            0 -1 57 1.4637206913903356e-03</internalNodes>
          <leafValues>
            5.9359472990036011e-01 -8.3957928419113159e-01</leafValues></_>
        <_>
          <internalNodes>
            0 -1 11 5.8773607015609741e-02</internalNodes>
          <leafValues>
            -4.9034363031387329e-01 9.4195163249969482e-01</leafValues></_></weakClassifiers></_>
    <!-- stage 6 -->
    <_>
      <maxWeakCount>4</maxWeakCount>
      <stageThreshold>8.1097251176834106e-01</stageThreshold>
      <weakClassifiers>
        <_>
          <internalNodes>
            0 -1 1 -1.1758242908399552e-04</internalNodes>
          <leafValues>
            -2.9032257199287415e-01 9.7871583700180054e-01</leafValues></_>
        <_>
          <internalNodes>
            0 -1 2 7.6906020694877952e-05</internalNodes>
          <leafValues>
            9.3864041566848755e-01 -1.7800933122634888e-01</leafValues></_>
        <_>
          <internalNodes>
            0 -1 21 -1.2645713286474347e-04</internalNodes>
          <leafValues>
            -5.9272503852844238e-01 7.6444947719573975e-01</leafValues></_>
        <_>
          <internalNodes>
            0 -1 56 -1.0406497312942520e-04</internalNodes>
          <leafValues>
            -7.6563197374343872e-01 6.0299098491668701e-01</leafValues></_></weakClassifiers></_>
    <!-- stage 7 -->
    <_>
      <maxWeakCount>1</maxWeakCount>
      <stageThreshold>9.8362988233566284e-01</stageThreshold>
      <weakClassifiers>
        <_>
          <internalNodes>
            0 -1 56 8.3999475464224815e-05</internalNodes>
          <leafValues>
            9.8362988233566284e-01 -3.4999999403953552e-01</leafValues></_></weakClassifiers></_>
    <!-- stage 8 -->
    <_>
      <maxWeakCount>3</maxWeakCount>
      <stageThreshold>1.2434126138687134e+00</stageThreshold>
      <weakClassifiers>
        <_>
          <internalNodes>
            0 -1 53 1.8524673578212969e-05</internalNodes>
          <leafValues>
            9.7940707206726074e-01 -2.5373134016990662e-01</leafValues></_>
        <_>
          <internalNodes>
            0 -1 3 -3.2568419555900618e-05</internalNodes>
          <leafValues>
            -5.4592508077621460e-01 9.2449510097503662e-01</leafValues></_>
        <_>
          <internalNodes>
            0 -1 20 -3.4816024708561599e-05</internalNodes>
          <leafValues>
            -6.1271125078201294e-01 8.0993062257766724e-01</leafValues></_></weakClassifiers></_>
    <!-- stage 9 -->
    <_>
      <maxWeakCount>3</maxWeakCount>
      <stageThreshold>1.2671533823013306e+00</stageThreshold>
      <weakClassifiers>
        <_>
          <internalNodes>
            0 -1 62 -3.0660863558296114e-05</internalNodes>
          <leafValues>
            -6.8421053886413574e-01 9.7598022222518921e-01</leafValues></_>
        <_>
          <internalNodes>
            0 -1 62 3.4928678360302001e-05</internalNodes>
          <leafValues>
            9.2251843214035034e-01 -2.1904350817203522e-01</leafValues></_>
        <_>
          <internalNodes>
            0 -1 5 -5.1515256927814335e-05</internalNodes>
          <leafValues>
            -6.3134527206420898e-01 7.6296144723892212e-01</leafValues></_></weakClassifiers></_>
    <!-- stage 10 -->
    <_>
      <maxWeakCount>3</maxWeakCount>
      <stageThreshold>1.2160912752151489e+00</stageThreshold>
      <weakClassifiers>
        <_>
          <internalNodes>
            0 -1 39 4.9191671609878540e-01</internalNodes>
          <leafValues>
            9.7879111766815186e-01 -9.0476191043853760e-01</leafValues></_>
        <_>
          <internalNodes>
            0 -1 27 -1.0747446503955871e-04</internalNodes>
          <leafValues>
            -4.6018517017364502e-01 9.2451363801956177e-01</leafValues></_>
        <_>
          <internalNodes>
            0 -1 51 3.4323404543101788e-04</internalNodes>
          <leafValues>
            7.6871496438980103e-01 -6.8721342086791992e-01</leafValues></_></weakClassifiers></_>
    <!-- stage 11 -->
    <_>
      <maxWeakCount>4</maxWeakCount>
      <stageThreshold>1.3776853084564209e+00</stageThreshold>
      <weakClassifiers>
        <_>
          <internalNodes>
            0 -1 41 1.1594624817371368e-01</internalNodes>
          <leafValues>
            9.7286343574523926e-01 -8.3999997377395630e-01</leafValues></_>
        <_>
          <internalNodes>
            0 -1 52 -9.0390831232070923e-02</internalNodes>
          <leafValues>
            -7.8719919919967651e-01 8.6732256412506104e-01</leafValues></_>
        <_>
          <internalNodes>
            0 -1 22 -6.0383565723896027e-03</internalNodes>
          <leafValues>
            -6.2909227609634399e-01 6.6974210739135742e-01</leafValues></_>
        <_>
          <internalNodes>
            0 -1 53 -3.8011774449842051e-05</internalNodes>
          <leafValues>
            -6.2995392084121704e-01 5.2227890491485596e-01</leafValues></_></weakClassifiers></_>
    <!-- stage 12 -->
    <_>
      <maxWeakCount>5</maxWeakCount>
      <stageThreshold>8.4611356258392334e-01</stageThreshold>
      <weakClassifiers>
        <_>
          <internalNodes>
            0 -1 63 -1.7535471124574542e-04</internalNodes>
          <leafValues>
            -6.0000002384185791e-01 9.7597175836563110e-01</leafValues></_>
        <_>
          <internalNodes>
            0 -1 8 -1.6188865993171930e-04</internalNodes>
          <leafValues>
            -5.5184698104858398e-01 9.1093289852142334e-01</leafValues></_>
        <_>
          <internalNodes>
            0 -1 37 5.9823179617524147e-04</internalNodes>
          <leafValues>
            7.6579320430755615e-01 -7.7872502803802490e-01</leafValues></_>
        <_>
          <internalNodes>
            0 -1 7 9.6097850473597646e-05</internalNodes>
          <leafValues>
            5.9376549720764160e-01 -6.4692854881286621e-01</leafValues></_>
        <_>
          <internalNodes>
            0 -1 58 6.4882537117227912e-05</internalNodes>
          <leafValues>
            3.8486251235008240e-01 -8.1621867418289185e-01</leafValues></_></weakClassifiers></_>
    <!-- stage 13 -->
    <_>
      <maxWeakCount>3</maxWeakCount>
      <stageThreshold>1.1605913639068604e+00</stageThreshold>
      <weakClassifiers>
        <_>
          <internalNodes>
            0 -1 61 2.4147245567291975e-03</internalNodes>
          <leafValues>
            9.7738116979598999e-01 -7.5609755516052246e-01</leafValues></_>
        <_>
          <internalNodes>
            0 -1 60 8.8177557336166501e-04</internalNodes>
          <leafValues>
            8.9729923009872437e-01 -5.8582240343093872e-01</leafValues></_>
        <_>
          <internalNodes>
            0 -1 4 -3.0089862411841750e-04</internalNodes>
          <leafValues>
            -5.4363650083541870e-01 7.6903265714645386e-01</leafValues></_></weakClassifiers></_>
    <!-- stage 14 -->
    <_>
      <maxWeakCount>3</maxWeakCount>
      <stageThreshold>1.0710693597793579e+00</stageThreshold>
      <weakClassifiers>
        <_>
          <internalNodes>
            0 -1 46 -2.9647890478372574e-03</internalNodes>
          <leafValues>
            -1. 9.7949802875518799e-01</leafValues></_>
        <_>
          <internalNodes>
            0 -1 49 2.7165831997990608e-03</internalNodes>
          <leafValues>
            9.3106693029403687e-01 -7.0372283458709717e-01</leafValues></_>
        <_>
          <internalNodes>
            0 -1 38 -3.0628377571702003e-03</internalNodes>
          <leafValues>
            -7.9724013805389404e-01 7.9529410600662231e-01</leafValues></_></weakClassifiers></_>
    <!-- stage 15 -->
    <_>
      <maxWeakCount>4</maxWeakCount>
      <stageThreshold>6.6718572378158569e-01</stageThreshold>
      <weakClassifiers>
        <_>
          <internalNodes>
            0 -1 47 2.9750629328191280e-03</internalNodes>
          <leafValues>
            9.7461211681365967e-01 -1.</leafValues></_>
        <_>
          <internalNodes>
            0 -1 55 2.5410610251128674e-03</internalNodes>
          <leafValues>
            9.1057604551315308e-01 -6.7326188087463379e-01</leafValues></_>
        <_>
          <internalNodes>
            0 -1 48 -3.1334464438259602e-03</internalNodes>
          <leafValues>
            -6.9922494888305664e-01 7.7341789007186890e-01</leafValues></_>
        <_>
          <internalNodes>
            0 -1 29 -6.3648000359535217e-02</internalNodes>
          <leafValues>
            9.1046243906021118e-01 -5.1877748966217041e-01</leafValues></_></weakClassifiers></_>
    <!-- stage 16 -->
    <_>
      <maxWeakCount>5</maxWeakCount>
      <stageThreshold>1.0860582590103149e+00</stageThreshold>
      <weakClassifiers>
        <_>
          <internalNodes>
            0 -1 24 2.8062597848474979e-03</internalNodes>
          <leafValues>
            9.7841471433639526e-01 -6.2500000000000000e-01</leafValues></_>
        <_>
          <internalNodes>
            0 -1 14 -2.8145061805844307e-03</internalNodes>
          <leafValues>
            -5.2850353717803955e-01 9.1376304626464844e-01</leafValues></_>
        <_>
          <internalNodes>
            0 -1 40 -2.9166098684072495e-03</internalNodes>
          <leafValues>
            -8.8409829139709473e-01 7.4140214920043945e-01</leafValues></_>
        <_>
          <internalNodes>
            0 -1 35 9.4169273972511292e-02</internalNodes>
          <leafValues>
            -5.1810854673385620e-01 9.7352153062820435e-01</leafValues></_>
        <_>
          <internalNodes>
            0 -1 50 8.4591901395469904e-04</internalNodes>
          <leafValues>
            5.9608733654022217e-01 -8.3934026956558228e-01</leafValues></_></weakClassifiers></_>
    <!-- stage 17 -->
    <_>
      <maxWeakCount>5</maxWeakCount>
      <stageThreshold>1.3505164384841919e+00</stageThreshold>
      <weakClassifiers>
        <_>
          <internalNodes>
            0 -1 13 -2.3025209084153175e-03</internalNodes>
          <leafValues>
            -9.2000001668930054e-01 9.7321587800979614e-01</leafValues></_>
        <_>
          <internalNodes>
            0 -1 36 1.5764640411362052e-03</internalNodes>
          <leafValues>
            9.1259735822677612e-01 -3.7174725532531738e-01</leafValues></_>
        <_>
          <internalNodes>
            0 -1 16 -1.9064826192334294e-03</internalNodes>
          <leafValues>
            -6.6438794136047363e-01 7.3179870843887329e-01</leafValues></_>
        <_>
          <internalNodes>
            0 -1 28 1.4734824001789093e-01</internalNodes>
          <leafValues>
            -4.1543087363243103e-01 9.5922249555587769e-01</leafValues></_>
        <_>
          <internalNodes>
            0 -1 45 -1.9362483872100711e-03</internalNodes>
          <leafValues>
            -7.5108963251113892e-01 5.4452198743820190e-01</leafValues></_></weakClassifiers></_>
    <!-- stage 18 -->
    <_>
      <maxWeakCount>5</maxWeakCount>
      <stageThreshold>1.2129611968994141e+00</stageThreshold>
      <weakClassifiers>
        <_>
          <internalNodes>
            0 -1 18 2.0012050867080688e-02</internalNodes>
          <leafValues>
            9.7526502609252930e-01 -5.0000000000000000e-01</leafValues></_>
        <_>
          <internalNodes>
            0 -1 33 -6.4390264451503754e-03</internalNodes>
          <leafValues>
            -3.4460687637329102e-01 8.9652466773986816e-01</leafValues></_>
        <_>
          <internalNodes>
            0 -1 10 -4.0515349246561527e-04</internalNodes>
          <leafValues>
            -7.3030102252960205e-01 7.2264081239700317e-01</leafValues></_>
        <_>
          <internalNodes>
            0 -1 26 1.2594664096832275e-01</internalNodes>
          <leafValues>
            -3.8868728280067444e-01 8.2681411504745483e-01</leafValues></_>
        <_>
          <internalNodes>
            0 -1 42 -2.9907757416367531e-03</internalNodes>
          <leafValues>
            -8.1810522079467773e-01 4.6015977859497070e-01</leafValues></_></weakClassifiers></_>
    <!-- stage 19 -->
    <_>
      <maxWeakCount>4</maxWeakCount>
      <stageThreshold>7.6981329917907715e-01</stageThreshold>
      <weakClassifiers>
        <_>
          <internalNodes>
            0 -1 44 -2.6205286383628845e-02</internalNodes>
          <leafValues>
            -9.1304349899291992e-01 9.7252070903778076e-01</leafValues></_>
        <_>
          <internalNodes>
            0 -1 30 2.6263520121574402e-03</internalNodes>
          <leafValues>
            9.0413349866867065e-01 -4.3205773830413818e-01</leafValues></_>
        <_>
          <internalNodes>
            0 -1 32 -2.3600757122039795e-03</internalNodes>
          <leafValues>
            -8.5005211830139160e-01 6.8885445594787598e-01</leafValues></_>
        <_>
          <internalNodes>
            0 -1 12 1.1097882688045502e-01</internalNodes>
          <leafValues>
            -4.5950406789779663e-01 8.5628801584243774e-01</leafValues></_></weakClassifiers></_></stages>
  <features>
    <_>
      <rects>
        <_>
          0 0 2 1 -1.</_>
        <_>
          1 0 1 1 2.</_></rects>
      <tilted>0</tilted></_>
    <_>
      <rects>
        <_>
          0 0 1 2 -1.</_>
        <_>
          0 1 1 1 2.</_></rects>
      <tilted>0</tilted></_>
    <_>
      <rects>
        <_>
          0 0 2 2 -1.</_>
        <_>
          0 1 2 1 2.</_></rects>
      <tilted>0</tilted></_>
    <_>
      <rects>
        <_>
          0 0 3 2 -1.</_>
        <_>
          0 1 3 1 2.</_></rects>
      <tilted>0</tilted></_>
    <_>
      <rects>
        <_>
          0 0 3 3 -1.</_>
        <_>
          0 1 3 1 3.</_></rects>
      <tilted>0</tilted></_>
    <_>
      <rects>
        <_>
          0 0 12 5 -1.</_>
        <_>
          6 0 6 5 2.</_></rects>
      <tilted>0</tilted></_>
    <_>
      <rects>
        <_>
          0 0 7 8 -1.</_>
        <_>
          0 4 7 4 2.</_></rects>
      <tilted>0</tilted></_>
    <_>
      <rects>
        <_>
          0 1 2 3 -1.</_>
        <_>
          1 1 1 3 2.</_></rects>
      <tilted>0</tilted></_>
    <_>
      <rects>
        <_>
          0 1 2 4 -1.</_>
        <_>
          1 1 1 4 2.</_></rects>
      <tilted>0</tilted></_>
    <_>
      <rects>
        <_>
          0 1 6 1 -1.</_>
        <_>
          3 1 3 1 2.</_></rects>
      <tilted>0</tilted></_>
    <_>
      <rects>
        <_>
          0 1 10 6 -1.</_>
        <_>
          5 1 5 6 2.</_></rects>
      <tilted>0</tilted></_>
    <_>
      <rects>
        <_>
          0 2 6 18 -1.</_>
        <_>
          3 2 3 18 2.</_></rects>
      <tilted>0</tilted></_>
    <_>
      <rects>
        <_>
          0 2 10 21 -1.</_>
        <_>
          5 2 5 21 2.</_></rects>
      <tilted>0</tilted></_>
    <_>
      <rects>
        <_>
          0 3 2 3 -1.</_>
        <_>
          1 3 1 3 2.</_></rects>
      <tilted>0</tilted></_>
    <_>
      <rects>
        <_>
          0 3 4 21 -1.</_>
        <_>
          2 3 2 21 2.</_></rects>
      <tilted>0</tilted></_>
    <_>
      <rects>
        <_>
          0 12 20 12 -1.</_>
        <_>
          0 18 20 6 2.</_></rects>
      <tilted>0</tilted></_>
    <_>
      <rects>
        <_>
          0 16 8 7 -1.</_>
        <_>
          4 16 4 7 2.</_></rects>
      <tilted>0</tilted></_>
    <_>
      <rects>
        <_>
          0 17 24 5 -1.</_>
        <_>
          8 17 8 5 3.</_></rects>
      <tilted>0</tilted></_>
    <_>
      <rects>
        <_>
          0 17 11 4 -1.</_>
        <_>
          0 19 11 2 2.</_></rects>
      <tilted>0</tilted></_>
    <_>
      <rects>
        <_>
          0 18 1 6 -1.</_>
        <_>
          0 21 1 3 2.</_></rects>
      <tilted>0</tilted></_>
    <_>
      <rects>
        <_>
          0 20 6 1 -1.</_>
        <_>
          3 20 3 1 2.</_></rects>
      <tilted>0</tilted></_>
    <_>
      <rects>
        <_>
          0 21 1 3 -1.</_>
        <_>
          0 22 1 1 3.</_></rects>
      <tilted>0</tilted></_>
    <_>
      <rects>
        <_>
          0 21 24 3 -1.</_>
        <_>
          8 21 8 3 3.</_></rects>
      <tilted>0</tilted></_>
    <_>
      <rects>
        <_>
          0 22 2 1 -1.</_>
        <_>
          1 22 1 1 2.</_></rects>
      <tilted>0</tilted></_>
    <_>
      <rects>
        <_>
          0 22 4 2 -1.</_>
        <_>
          0 23 4 1 2.</_></rects>
      <tilted>0</tilted></_>
    <_>
      <rects>
        <_>
          1 0 1 4 -1.</_>
        <_>
          1 2 1 2 2.</_></rects>
      <tilted>0</tilted></_>
    <_>
      <rects>
        <_>
          1 0 20 10 -1.</_>
        <_>
          1 5 20 5 2.</_></rects>
      <tilted>0</tilted></_>
    <_>
      <rects>
        <_>
          1 0 22 8 -1.</_>
        <_>
          1 4 22 4 2.</_></rects>
      <tilted>0</tilted></_>
    <_>
      <rects>
        <_>
          1 0 22 12 -1.</_>
        <_>
          1 6 22 6 2.</_></rects>
      <tilted>0</tilted></_>
    <_>
      <rects>
        <_>
          1 12 19 12 -1.</_>
        <_>
          1 18 19 6 2.</_></rects>
      <tilted>0</tilted></_>
    <_>
      <rects>
        <_>
          1 20 23 4 -1.</_>
        <_>
          1 22 23 2 2.</_></rects>
      <tilted>0</tilted></_>
    <_>
      <rects>
        <_>
          2 0 2 2 -1.</_>
        <_>
          3 0 1 2 2.</_></rects>
      <tilted>0</tilted></_>
    <_>
      <rects>
        <_>
          2 0 14 2 -1.</_>
        <_>
          2 1 14 1 2.</_></rects>
      <tilted>0</tilted></_>
    <_>
      <rects>
        <_>
          2 0 17 8 -1.</_>
        <_>
          2 4 17 4 2.</_></rects>
      <tilted>0</tilted></_>
    <_>
      <rects>
        <_>
          2 0 18 10 -1.</_>
        <_>
          2 5 18 5 2.</_></rects>
      <tilted>0</tilted></_>
    <_>
      <rects>
        <_>
          2 0 19 10 -1.</_>
        <_>
          2 5 19 5 2.</_></rects>
      <tilted>0</tilted></_>
    <_>
      <rects>
        <_>
          2 16 22 8 -1.</_>
        <_>
          2 20 22 4 2.</_></rects>
      <tilted>0</tilted></_>
    <_>
      <rects>
        <_>
          3 20 21 4 -1.</_>
        <_>
          3 22 21 2 2.</_></rects>
      <tilted>0</tilted></_>
    <_>
      <rects>
        <_>
          4 0 4 2 -1.</_>
        <_>
          6 0 2 2 2.</_></rects>
      <tilted>0</tilted></_>
    <_>
      <rects>
        <_>
          4 0 20 24 -1.</_>
        <_>
          4 12 20 12 2.</_></rects>
      <tilted>0</tilted></_>
    <_>
      <rects>
        <_>
          4 11 1 3 -1.</_>
        <_>
          4 12 1 1 3.</_></rects>
      <tilted>0</tilted></_>
    <_>
      <rects>
        <_>
          4 17 20 7 -1.</_>
        <_>
          14 17 10 7 2.</_></rects>
      <tilted>0</tilted></_>
    <_>
      <rects>
        <_>
          4 23 9 1 -1.</_>
        <_>
          7 23 3 1 3.</_></rects>
      <tilted>0</tilted></_>
    <_>
      <rects>
        <_>
          6 0 15 2 -1.</_>
        <_>
          6 1 15 1 2.</_></rects>
      <tilted>0</tilted></_>
    <_>
      <rects>
        <_>
          7 21 9 3 -1.</_>
        <_>
          10 21 3 3 3.</_></rects>
      <tilted>0</tilted></_>
    <_>
      <rects>
        <_>
          8 0 6 1 -1.</_>
        <_>
          11 0 3 1 2.</_></rects>
      <tilted>0</tilted></_>
    <_>
      <rects>
        <_>
          9 14 2 2 -1.</_>
        <_>
          9 14 1 1 2.</_>
        <_>
          10 15 1 1 2.</_></rects>
      <tilted>0</tilted></_>
    <_>
      <rects>
        <_>
          11 11 1 3 -1.</_>
        <_>
          11 12 1 1 3.</_></rects>
      <tilted>0</tilted></_>
    <_>
      <rects>
        <_>
          11 19 3 5 -1.</_>
        <_>
          12 19 1 5 3.</_></rects>
      <tilted>0</tilted></_>
    <_>
      <rects>
        <_>
          13 19 2 2 -1.</_>
        <_>
          14 19 1 2 2.</_></rects>
      <tilted>0</tilted></_>
    <_>
      <rects>
        <_>
          15 1 8 3 -1.</_>
        <_>
          19 1 4 3 2.</_></rects>
      <tilted>0</tilted></_>
    <_>
      <rects>
        <_>
          16 7 8 17 -1.</_>
        <_>
          20 7 4 17 2.</_></rects>
      <tilted>0</tilted></_>
    <_>
      <rects>
        <_>
          17 0 7 18 -1.</_>
        <_>
          17 9 7 9 2.</_></rects>
      <tilted>0</tilted></_>
    <_>
      <rects>
        <_>
          18 0 6 1 -1.</_>
        <_>
          21 0 3 1 2.</_></rects>
      <tilted>0</tilted></_>
    <_>
      <rects>
        <_>
          18 1 6 1 -1.</_>
        <_>
          21 1 3 1 2.</_></rects>
      <tilted>0</tilted></_>
    <_>
      <rects>
        <_>
          18 23 6 1 -1.</_>
        <_>
          21 23 3 1 2.</_></rects>
      <tilted>0</tilted></_>
    <_>
      <rects>
        <_>
          20 0 4 1 -1.</_>
        <_>
          22 0 2 1 2.</_></rects>
      <tilted>0</tilted></_>
    <_>
      <rects>
        <_>
          20 2 4 20 -1.</_>
        <_>
          22 2 2 20 2.</_></rects>
      <tilted>0</tilted></_>
    <_>
      <rects>
        <_>
          20 22 4 2 -1.</_>
        <_>
          20 23 4 1 2.</_></rects>
      <tilted>0</tilted></_>
    <_>
      <rects>
        <_>
          22 0 2 1 -1.</_>
        <_>
          23 0 1 1 2.</_></rects>
      <tilted>0</tilted></_>
    <_>
      <rects>
        <_>
          22 1 2 3 -1.</_>
        <_>
          23 1 1 3 2.</_></rects>
      <tilted>0</tilted></_>
    <_>
      <rects>
        <_>
          22 21 2 2 -1.</_>
        <_>
          23 21 1 2 2.</_></rects>
      <tilted>0</tilted></_>
    <_>
      <rects>
        <_>
          23 0 1 2 -1.</_>
        <_>
          23 1 1 1 2.</_></rects>
      <tilted>0</tilted></_>
    <_>
      <rects>
        <_>
          23 0 1 4 -1.</_>
        <_>
          23 2 1 2 2.</_></rects>
      <tilted>0</tilted></_></features></cascade>
</opencv_storage>
