<?xml version="1.0"?>
<opencv_storage>
<stage18>
  <maxWeakCount>5</maxWeakCount>
  <stageThreshold>1.2129611968994141e+00</stageThreshold>
  <weakClassifiers>
    <_>
      <internalNodes>
        0 -1 12443 2.0012050867080688e-02</internalNodes>
      <leafValues>
        9.7526502609252930e-01 -5.0000000000000000e-01</leafValues></_>
    <_>
      <internalNodes>
        0 -1 26694 -6.4390264451503754e-03</internalNodes>
      <leafValues>
        -3.4460687637329102e-01 8.9652466773986816e-01</leafValues></_>
    <_>
      <internalNodes>
        0 -1 1429 -4.0515349246561527e-04</internalNodes>
      <leafValues>
        -7.3030102252960205e-01 7.2264081239700317e-01</leafValues></_>
    <_>
      <internalNodes>
        0 -1 14344 1.2594664096832275e-01</internalNodes>
      <leafValues>
        -3.8868728280067444e-01 8.2681411504745483e-01</leafValues></_>
    <_>
      <internalNodes>
        0 -1 60425 -2.9907757416367531e-03</internalNodes>
      <leafValues>
        -8.1810522079467773e-01 4.6015977859497070e-01</leafValues></_></weakClassifiers></stage18>
</opencv_storage>
